{
    "levels": [
        {
            "inputs": [
                0,
                0,
                0,
                0.48325735821691373,
                0.7203408974877504
            ],
            "outputs": [
                1,
                1,
                0,
                1,
                0,
                1
            ],
            "biases": [
                0.016257741217222586,
                0.045653850270621285,
                0.036112670967453145,
                -0.04806751190877384,
                0.21654879215384515,
                -0.0445229986830214
            ],
            "weights": [
                [
                    -0.36961384044523904,
                    -0.11280976255854086,
                    0.04668798408449533,
                    -0.142957811814332,
                    0.20671121737397646,
                    -0.1157124364051961
                ],
                [
                    0.155458007382343,
                    -0.3582065687501824,
                    0.35098287229593966,
                    0.06301880114453329,
                    -0.28124107522590547,
                    0.1478242017023118
                ],
                [
                    0.08112050470246107,
                    0.20195167124171842,
                    -0.04173982156556588,
                    -0.10168689674672345,
                    0.2629375086604417,
                    -0.023688235666858418
                ],
                [
                    0.13885392591272525,
                    0.26475504591723137,
                    0.005021905155428028,
                    0.195562986070591,
                    0.09126182337038154,
                    0.30929105156054526
                ],
                [
                    0.06721293832135838,
                    -0.03883272746996324,
                    -0.06742394499210082,
                    -0.039849814446411086,
                    -0.028819487267725596,
                    0.061069098448319814
                ]
            ]
        },
        {
            "inputs": [
                1,
                1,
                0,
                1,
                0,
                1
            ],
            "outputs": [
                1,
                1,
                1,
                0
            ],
            "biases": [
                -0.051737742292452545,
                -0.375420553911123,
                -0.13116463628579192,
                0.04910934439292639
            ],
            "weights": [
                [
                    -0.10275318797960392,
                    0.21211154790053657,
                    0.12057813821778753,
                    -0.11478520952616394
                ],
                [
                    0.06798855008681219,
                    0.21535723880910213,
                    -0.22584533750278768,
                    0.07092804758326664
                ],
                [
                    0.043804070585057815,
                    -0.4183841304493411,
                    0.04273038861779925,
                    -0.23511196046434885
                ],
                [
                    0.1511369800243226,
                    -0.13942789792021112,
                    -0.08044958638094032,
                    -0.08234055297793805
                ],
                [
                    -0.05386997579480339,
                    0.1090923736912256,
                    0.3016267994058962,
                    0.2446455586905971
                ],
                [
                    0.009831850038358056,
                    -0.007442566104911064,
                    0.07837307329909009,
                    -0.04172140532828844
                ]
            ]
        }
    ]
}